34 128
34 -0.200372 -0.060296 0.061627 -0.196739 -0.068807 0.187675 -0.158657 0.112525 0.189899 -0.015062 0.016112 0.198654 0.035730 -0.008382 0.025794 0.145991 -0.083815 -0.053430 0.150642 0.067725 0.090533 0.052415 0.224032 -0.148705 -0.048689 0.074082 0.002002 0.158365 -0.033162 0.128505 -0.095348 0.094417 -0.258894 0.165880 0.060721 0.042029 0.278736 -0.118733 -0.025613 0.005949 -0.110251 -0.136133 0.155097 -0.057510 -0.026290 0.014922 -0.132502 -0.009706 0.015272 -0.023257 0.098710 -0.003097 -0.023816 -0.003540 -0.117829 0.009519 -0.158425 -0.096824 0.116996 -0.128295 0.187776 0.025392 0.070583 -0.096033 0.052515 -0.091023 -0.144827 -0.064988 0.052911 0.142749 0.067111 0.042050 -0.026993 0.072566 0.093195 -0.100954 0.240943 -0.067400 0.086798 -0.014712 0.055430 -0.260580 -0.013819 0.046363 -0.038136 -0.099961 -0.123136 -0.141227 -0.129594 0.110170 -0.138185 0.010339 0.051999 0.067069 -0.070352 0.058168 -0.068725 -0.052388 0.133722 -0.114807 -0.002609 -0.022059 -0.006532 0.129546 -0.101519 -0.002892 0.065838 0.105601 0.078009 0.136551 -0.189004 0.072358 -0.165055 -0.174352 0.109649 -0.185235 -0.017397 0.283645 0.079929 -0.154991 -0.011403 -0.002509 -0.038464 -0.038807 -0.226502 -0.130231 -0.024241 0.230559
1 -0.210101 -0.102399 0.025944 -0.086277 -0.113721 0.181516 -0.318241 0.138278 0.108211 -0.162363 0.069188 0.106643 -0.106796 0.050458 0.025872 0.019056 -0.223252 -0.098173 0.218245 0.062784 0.036242 0.062540 0.176474 -0.080825 0.036016 0.025968 -0.044862 0.129960 0.000596 0.040381 -0.151639 0.155228 -0.147176 0.095584 0.089353 0.062638 0.214117 0.021079 -0.026131 -0.024580 -0.003588 -0.161832 0.073515 -0.195526 0.117534 -0.032628 -0.109944 -0.085396 -0.042693 0.012015 0.120215 -0.109784 -0.029568 -0.016436 -0.054450 0.061591 -0.193545 -0.066203 0.050321 -0.174519 0.137199 -0.002648 0.032069 -0.091009 0.084326 -0.113803 -0.056129 0.003894 0.020629 0.014234 -0.006979 0.062056 0.020744 -0.000435 0.039112 -0.123092 0.103120 -0.011514 0.088461 0.055548 0.070369 -0.284005 0.077479 0.089917 0.033238 -0.092385 -0.060227 -0.112230 -0.123719 0.037679 -0.113811 0.056506 0.032612 0.123342 -0.042310 0.042737 -0.049317 -0.012608 0.053147 -0.182633 -0.027063 -0.098672 0.061562 0.014371 -0.019842 0.021206 -0.016950 0.055597 0.065099 0.100756 -0.240768 0.111042 -0.217475 -0.167704 0.121712 -0.198369 0.013295 0.293011 0.084797 -0.069484 0.007485 -0.085936 0.040783 0.084396 -0.159405 -0.214664 -0.049196 0.157785
33 -0.196842 -0.051748 0.070934 -0.216068 -0.069820 0.188446 -0.119635 0.104504 0.207339 0.018513 0.005424 0.220675 0.058666 -0.013668 0.022868 0.170633 -0.051900 -0.040329 0.146647 0.066668 0.110406 0.049405 0.235055 -0.158302 -0.060821 0.085384 0.010440 0.158693 -0.042356 0.149550 -0.078509 0.083362 -0.281339 0.182636 0.047592 0.048185 0.292412 -0.157333 -0.022661 0.016514 -0.125877 -0.131887 0.178311 -0.030844 -0.059186 0.024374 -0.139766 0.012742 0.029275 -0.025090 0.092295 0.012314 -0.026311 0.000007 -0.136307 -0.008001 -0.149398 -0.104873 0.140622 -0.126260 0.204935 0.026192 0.073301 -0.099980 0.047582 -0.078130 -0.167339 -0.074692 0.053261 0.174477 0.089273 0.034627 -0.040835 0.093519 0.112521 -0.094472 0.274664 -0.086576 0.086499 -0.033163 0.053388 -0.258367 -0.037189 0.034372 -0.058616 -0.109891 -0.137668 -0.144319 -0.138514 0.133021 -0.145365 0.001050 0.050688 0.057249 -0.080531 0.066284 -0.073371 -0.062905 0.147683 -0.090534 0.003451 -0.007345 -0.028940 0.149180 -0.121937 -0.010372 0.083439 0.122713 0.081931 0.138727 -0.170502 0.056521 -0.150818 -0.172378 0.099023 -0.183317 -0.019221 0.281764 0.079472 -0.171336 -0.017047 0.011913 -0.061792 -0.059363 -0.238234 -0.119413 -0.012177 0.242186
3 -0.197123 -0.077423 0.047437 -0.143160 -0.090362 0.180480 -0.223617 0.118531 0.156558 -0.083600 0.044446 0.162132 -0.023880 0.018656 0.029970 0.097011 -0.143998 -0.074800 0.179208 0.056969 0.067861 0.052348 0.204528 -0.112372 -0.011494 0.049592 -0.021568 0.150428 -0.018408 0.094644 -0.121107 0.123279 -0.203156 0.133772 0.072011 0.054539 0.248683 -0.054959 -0.019005 -0.013142 -0.057955 -0.146364 0.117413 -0.116892 0.041768 -0.007137 -0.119869 -0.038589 -0.006171 -0.006348 0.103142 -0.052609 -0.025713 -0.005477 -0.093240 0.027702 -0.176649 -0.078275 0.093271 -0.156087 0.171838 0.012845 0.043059 -0.095856 0.071776 -0.098253 -0.106361 -0.032619 0.032293 0.088710 0.034888 0.053422 -0.009275 0.045619 0.068507 -0.103380 0.176004 -0.048243 0.086840 0.011736 0.063851 -0.256200 0.027938 0.057987 -0.013791 -0.093197 -0.090198 -0.126137 -0.127605 0.081170 -0.125537 0.027936 0.048546 0.094043 -0.056567 0.058185 -0.060300 -0.040461 0.086996 -0.133042 -0.013663 -0.051663 0.016016 0.079826 -0.068868 0.010875 0.033991 0.085390 0.076508 0.118001 -0.194224 0.088602 -0.181122 -0.170892 0.106965 -0.185402 -0.010984 0.275028 0.081582 -0.109688 -0.003829 -0.041088 -0.003076 0.014776 -0.183588 -0.163245 -0.035494 0.187145
2 -0.200353 -0.081183 0.037170 -0.122870 -0.096984 0.179137 -0.252420 0.127694 0.139861 -0.112569 0.053441 0.140064 -0.052544 0.034095 0.030139 0.062778 -0.174093 -0.079015 0.197987 0.053826 0.055243 0.054674 0.186320 -0.102124 0.008619 0.046208 -0.022959 0.139844 -0.012729 0.070162 -0.131695 0.138000 -0.181826 0.120505 0.084632 0.059477 0.232866 -0.031945 -0.016552 -0.019200 -0.034825 -0.150999 0.101202 -0.145748 0.069572 -0.012823 -0.112740 -0.058099 -0.018385 -0.000140 0.107438 -0.072652 -0.026198 -0.008912 -0.086211 0.042995 -0.183967 -0.076253 0.084955 -0.166057 0.156873 0.009071 0.036594 -0.095459 0.075459 -0.107000 -0.090465 -0.014059 0.034523 0.065002 0.022539 0.054431 0.007832 0.032273 0.063812 -0.109773 0.154069 -0.034668 0.086556 0.031758 0.060085 -0.262848 0.047852 0.070195 0.002799 -0.091826 -0.084511 -0.120749 -0.128559 0.063455 -0.117419 0.035517 0.039485 0.103560 -0.049777 0.053882 -0.058318 -0.027585 0.079135 -0.145150 -0.023426 -0.067985 0.036039 0.056516 -0.045571 0.018634 0.011351 0.074058 0.071114 0.112367 -0.210743 0.089281 -0.192974 -0.163582 0.105527 -0.186629 -0.001254 0.277110 0.082835 -0.096381 0.003414 -0.054822 0.014145 0.037347 -0.172977 -0.175801 -0.039670 0.171166
32 -0.192222 -0.066717 0.062281 -0.194615 -0.075742 0.186567 -0.153198 0.103245 0.183690 -0.015556 0.015080 0.196312 0.026355 -0.006183 0.019280 0.137953 -0.076463 -0.049940 0.147527 0.066653 0.087392 0.051365 0.209713 -0.139411 -0.040803 0.077314 0.007371 0.145679 -0.028772 0.117194 -0.088719 0.083442 -0.241436 0.154527 0.053651 0.044188 0.269015 -0.116611 -0.025620 0.005707 -0.095873 -0.131922 0.161132 -0.058050 -0.030812 0.024388 -0.131959 0.000772 0.013194 -0.021434 0.095304 -0.006733 -0.022622 -0.005067 -0.112071 -0.000358 -0.149807 -0.095614 0.120851 -0.128429 0.180269 0.024642 0.066175 -0.089174 0.046060 -0.088971 -0.139877 -0.058811 0.045838 0.151076 0.076137 0.039224 -0.033758 0.069110 0.091763 -0.087692 0.230250 -0.066967 0.085110 -0.019848 0.059783 -0.260157 -0.011281 0.046807 -0.039317 -0.105770 -0.125149 -0.133374 -0.133370 0.110415 -0.147789 0.008975 0.045973 0.061303 -0.072257 0.052651 -0.069722 -0.056195 0.139961 -0.101060 -0.004909 -0.021285 -0.016223 0.125870 -0.107793 0.003010 0.060128 0.117798 0.069358 0.130259 -0.181589 0.068135 -0.146427 -0.169852 0.105892 -0.183732 -0.003547 0.277177 0.086526 -0.154582 -0.015445 -0.004381 -0.032775 -0.039856 -0.219692 -0.136295 -0.013139 0.222123
4 -0.194060 -0.085244 0.029773 -0.103368 -0.099675 0.174629 -0.267695 0.124260 0.125140 -0.126443 0.060334 0.122772 -0.074093 0.035248 0.030569 0.041898 -0.182733 -0.087321 0.199155 0.054213 0.043770 0.057271 0.173386 -0.086767 0.018502 0.036775 -0.033490 0.129426 -0.005090 0.050876 -0.133396 0.139967 -0.162730 0.105789 0.085308 0.057183 0.221031 -0.012485 -0.020754 -0.022379 -0.021292 -0.148247 0.087811 -0.159753 0.084244 -0.014143 -0.112607 -0.064106 -0.025818 0.003510 0.107748 -0.084459 -0.026196 -0.012178 -0.072294 0.046790 -0.184373 -0.071484 0.066835 -0.163038 0.145655 0.000422 0.032552 -0.086678 0.077682 -0.103844 -0.076410 -0.008092 0.026675 0.048237 0.015091 0.057229 0.011961 0.013974 0.048665 -0.111644 0.129907 -0.025280 0.081611 0.033466 0.067154 -0.264194 0.058205 0.074737 0.017148 -0.094291 -0.075226 -0.115397 -0.123264 0.053365 -0.119706 0.041577 0.036039 0.108073 -0.047195 0.047890 -0.056526 -0.024369 0.071505 -0.157117 -0.023486 -0.079981 0.040289 0.040089 -0.043324 0.019274 -0.003573 0.067916 0.066067 0.104367 -0.217282 0.099146 -0.191672 -0.162240 0.113887 -0.186276 0.007231 0.279202 0.081722 -0.085614 0.007799 -0.062340 0.026531 0.052356 -0.157426 -0.189634 -0.042002 0.164293
24 -0.191337 -0.072811 0.054170 -0.171563 -0.076391 0.182544 -0.184057 0.117108 0.170330 -0.045588 0.023514 0.179982 -0.004483 0.004318 0.027201 0.119517 -0.104976 -0.059639 0.157744 0.063438 0.080198 0.051459 0.203592 -0.129220 -0.023759 0.068486 -0.007000 0.145380 -0.023227 0.101927 -0.094060 0.101546 -0.228030 0.145287 0.063833 0.043270 0.256867 -0.093999 -0.026292 0.003478 -0.082339 -0.133091 0.139968 -0.081525 -0.002881 0.011069 -0.122359 -0.023915 -0.000487 -0.010767 0.099148 -0.026690 -0.023261 -0.005065 -0.101394 0.017116 -0.163289 -0.086772 0.105472 -0.139990 0.176617 0.021524 0.061278 -0.087298 0.061514 -0.093308 -0.128143 -0.044221 0.047321 0.112936 0.050555 0.044552 -0.020501 0.057099 0.084514 -0.099556 0.209144 -0.053016 0.085304 -0.003874 0.054562 -0.263074 0.006074 0.052563 -0.021758 -0.101486 -0.111019 -0.133584 -0.132908 0.094952 -0.139419 0.016081 0.041974 0.074393 -0.065652 0.051435 -0.057862 -0.042780 0.115563 -0.122071 -0.007065 -0.040267 -0.001131 0.101763 -0.079822 0.004188 0.043958 0.101366 0.074195 0.119286 -0.192039 0.074079 -0.167770 -0.160057 0.104890 -0.178787 0.001042 0.276585 0.080821 -0.136487 -0.012376 -0.019988 -0.021167 -0.015924 -0.207266 -0.144094 -0.017517 0.209998
14 -0.195712 -0.082483 0.041370 -0.131428 -0.087354 0.170940 -0.228322 0.120385 0.143393 -0.097007 0.049576 0.144351 -0.045518 0.021804 0.028431 0.076404 -0.152791 -0.077066 0.178938 0.059184 0.055321 0.055079 0.185986 -0.099590 -0.004625 0.043872 -0.022115 0.132891 -0.014693 0.074324 -0.123202 0.120051 -0.185739 0.117231 0.074783 0.048385 0.229821 -0.036500 -0.018244 -0.011340 -0.046359 -0.140569 0.101436 -0.129005 0.050900 -0.010340 -0.111245 -0.046097 -0.014832 -0.004287 0.102448 -0.055796 -0.025925 -0.007285 -0.083526 0.036837 -0.172353 -0.078000 0.079539 -0.146409 0.148493 0.006579 0.040668 -0.082898 0.068791 -0.099634 -0.095494 -0.020244 0.032888 0.071731 0.030104 0.055401 0.002780 0.032339 0.061621 -0.104007 0.149404 -0.032305 0.078671 0.022408 0.056070 -0.254115 0.039922 0.062157 -0.002323 -0.092488 -0.083336 -0.119008 -0.124011 0.064398 -0.119570 0.033702 0.041039 0.092708 -0.052758 0.045993 -0.051738 -0.025342 0.082260 -0.141806 -0.016133 -0.059827 0.029561 0.064716 -0.053405 0.012300 0.015057 0.072372 0.069654 0.112023 -0.204067 0.089493 -0.178647 -0.155672 0.108038 -0.181100 -0.003109 0.262617 0.072292 -0.099090 0.002240 -0.047337 0.005445 0.024819 -0.165894 -0.162977 -0.034180 0.171817
30 -0.190036 -0.057394 0.060315 -0.177208 -0.070539 0.178040 -0.152495 0.106255 0.184145 -0.021925 0.019130 0.192314 0.021824 -0.006008 0.023553 0.135844 -0.080431 -0.050031 0.148736 0.066986 0.090323 0.054064 0.210235 -0.140489 -0.037864 0.072024 0.002603 0.151433 -0.032152 0.116491 -0.083423 0.093983 -0.241470 0.153328 0.051419 0.042463 0.259188 -0.116916 -0.021819 0.006324 -0.098929 -0.127959 0.145986 -0.060527 -0.023669 0.014065 -0.117897 -0.005829 0.009883 -0.019242 0.094020 -0.011564 -0.023214 -0.001732 -0.115192 0.012772 -0.151204 -0.087906 0.107354 -0.127072 0.176328 0.015959 0.064129 -0.089999 0.056814 -0.081525 -0.128826 -0.055992 0.045680 0.128953 0.057736 0.031002 -0.021451 0.068347 0.086312 -0.099084 0.225740 -0.065268 0.082080 -0.007604 0.046722 -0.243282 -0.017157 0.037125 -0.031186 -0.094641 -0.113327 -0.125510 -0.131129 0.100843 -0.130928 0.004327 0.043572 0.061624 -0.069103 0.053780 -0.057279 -0.047861 0.125806 -0.106004 0.003213 -0.019287 -0.008375 0.114749 -0.094526 -0.004051 0.061370 0.101486 0.067074 0.121365 -0.172380 0.063495 -0.146081 -0.155333 0.097576 -0.167389 -0.013912 0.259040 0.070561 -0.137589 -0.013316 0.001003 -0.040183 -0.030940 -0.209420 -0.122248 -0.019328 0.211128
7 -0.216766 -0.124267 0.009118 -0.038067 -0.134844 0.172566 -0.397556 0.154059 0.072606 -0.241788 0.093219 0.060648 -0.181157 0.075006 0.030013 -0.037625 -0.297870 -0.125119 0.246916 0.060834 0.009652 0.075583 0.143955 -0.039347 0.074418 0.014588 -0.060756 0.110094 0.016065 -0.011784 -0.183886 0.188901 -0.094525 0.058096 0.110774 0.060102 0.191667 0.097355 -0.028078 -0.036028 0.042787 -0.174653 0.031686 -0.261936 0.188251 -0.058841 -0.097135 -0.131070 -0.078608 0.035752 0.131499 -0.162163 -0.029161 -0.028609 -0.015894 0.089097 -0.215291 -0.062904 0.019171 -0.201138 0.121152 -0.009240 0.009288 -0.092128 0.093906 -0.136585 -0.020089 0.042766 0.007805 -0.050631 -0.054783 0.077284 0.048277 -0.035809 0.019181 -0.135556 0.040983 0.017353 0.093698 0.088059 0.070768 -0.297256 0.133737 0.114883 0.085643 -0.089446 -0.032425 -0.100632 -0.114820 -0.007069 -0.110976 0.079067 0.026416 0.148483 -0.017610 0.029757 -0.041730 0.001525 0.013311 -0.218146 -0.042973 -0.137567 0.099617 -0.048273 0.024193 0.031034 -0.063784 0.033981 0.056876 0.081365 -0.275908 0.136974 -0.243524 -0.165018 0.124712 -0.215777 0.044006 0.294085 0.091288 -0.032007 0.019214 -0.125861 0.088516 0.140376 -0.123424 -0.245046 -0.056787 0.117705
6 -0.217323 -0.127450 0.013804 -0.045481 -0.136006 0.180028 -0.399990 0.157698 0.078654 -0.242470 0.090031 0.067731 -0.180295 0.073595 0.025837 -0.037926 -0.290874 -0.126107 0.248221 0.063907 0.009617 0.080514 0.146262 -0.044751 0.069531 0.014066 -0.056979 0.117175 0.014738 -0.006131 -0.179758 0.189896 -0.097468 0.062399 0.108736 0.063772 0.199344 0.088765 -0.026110 -0.036606 0.039275 -0.168939 0.041973 -0.256445 0.178288 -0.049207 -0.099229 -0.131105 -0.079226 0.032060 0.130783 -0.155594 -0.025072 -0.027487 -0.018459 0.084925 -0.216718 -0.063711 0.018551 -0.195866 0.120967 -0.006396 0.014413 -0.088467 0.093697 -0.137522 -0.018856 0.040913 0.013526 -0.041251 -0.050649 0.079598 0.050464 -0.041074 0.021738 -0.130613 0.044786 0.020870 0.097528 0.084655 0.072078 -0.306582 0.123854 0.118877 0.085947 -0.092911 -0.035167 -0.106235 -0.121226 0.003264 -0.116201 0.077531 0.026854 0.147712 -0.023113 0.023694 -0.041078 0.004425 0.019907 -0.216277 -0.043185 -0.133049 0.089656 -0.041699 0.019104 0.034971 -0.059436 0.038343 0.055649 0.082918 -0.272743 0.136001 -0.243144 -0.162047 0.124772 -0.216072 0.048051 0.293067 0.086644 -0.035727 0.016313 -0.123197 0.086213 0.133219 -0.129897 -0.246828 -0.050500 0.129672
28 -0.193415 -0.069441 0.065168 -0.193148 -0.079936 0.187398 -0.163884 0.110610 0.187719 -0.025672 0.025409 0.200888 0.020168 -0.003852 0.022585 0.132112 -0.081311 -0.052871 0.152478 0.067429 0.083875 0.048036 0.211897 -0.136209 -0.040341 0.079381 0.004475 0.145493 -0.032353 0.119967 -0.095920 0.088521 -0.244419 0.153153 0.058693 0.045900 0.267801 -0.113349 -0.019339 0.007895 -0.094650 -0.134239 0.152727 -0.063083 -0.024631 0.020615 -0.131276 -0.002086 0.014557 -0.018461 0.100145 -0.005306 -0.026079 -0.005219 -0.116461 0.003230 -0.158316 -0.094123 0.114977 -0.133349 0.179884 0.026034 0.066984 -0.097200 0.047549 -0.090570 -0.140645 -0.057628 0.050841 0.143594 0.073400 0.040579 -0.031303 0.066839 0.095673 -0.097826 0.227597 -0.063251 0.085529 -0.013647 0.064139 -0.263978 -0.006906 0.045564 -0.037448 -0.103085 -0.121395 -0.138177 -0.137565 0.113497 -0.150495 0.014338 0.044043 0.068661 -0.068089 0.051885 -0.067800 -0.049092 0.133531 -0.114356 -0.007205 -0.030077 -0.012367 0.121836 -0.097471 0.006258 0.051700 0.113753 0.073500 0.131564 -0.190846 0.071777 -0.155906 -0.173401 0.107818 -0.187981 -0.002119 0.286158 0.084979 -0.148905 -0.010409 -0.004554 -0.028963 -0.036938 -0.213869 -0.138025 -0.013248 0.225570
9 -0.200171 -0.079445 0.045850 -0.146945 -0.090916 0.182102 -0.218800 0.121896 0.154349 -0.081944 0.038588 0.160273 -0.023936 0.022836 0.028795 0.085739 -0.142470 -0.071420 0.178539 0.060125 0.066224 0.053742 0.197439 -0.115061 -0.008544 0.049987 -0.018204 0.143923 -0.020458 0.085175 -0.114017 0.120813 -0.202052 0.134936 0.071973 0.054551 0.243920 -0.060242 -0.021769 -0.003964 -0.060115 -0.139245 0.119896 -0.116598 0.038536 -0.000601 -0.118861 -0.038567 -0.006863 -0.009897 0.099630 -0.051184 -0.025727 -0.011870 -0.091954 0.033626 -0.168212 -0.086070 0.091020 -0.147059 0.160633 0.008239 0.050947 -0.094958 0.063940 -0.098283 -0.109228 -0.034139 0.033489 0.089385 0.038992 0.049513 -0.007554 0.041123 0.075622 -0.107256 0.176613 -0.044934 0.085656 0.011560 0.059188 -0.261298 0.021144 0.063942 -0.010403 -0.094022 -0.095431 -0.126778 -0.123373 0.072854 -0.120339 0.031265 0.044529 0.086979 -0.053496 0.048286 -0.055306 -0.027931 0.100364 -0.138805 -0.016788 -0.051844 0.017264 0.075182 -0.065438 0.010884 0.022902 0.082612 0.067147 0.115970 -0.200591 0.083011 -0.180204 -0.158531 0.106613 -0.182336 -0.000995 0.275193 0.080135 -0.110783 -0.000830 -0.032629 -0.003817 0.014284 -0.188478 -0.162816 -0.028228 0.188669
8 -0.193010 -0.076403 0.045893 -0.137382 -0.081926 0.176255 -0.215060 0.113082 0.145822 -0.085991 0.040445 0.147957 -0.029988 0.021128 0.025785 0.085271 -0.138982 -0.070717 0.170853 0.055518 0.058507 0.054415 0.186895 -0.107362 -0.005943 0.048278 -0.014581 0.137174 -0.014943 0.076439 -0.118766 0.118266 -0.187336 0.122003 0.074030 0.049253 0.232251 -0.046196 -0.024034 -0.012815 -0.055422 -0.137018 0.112367 -0.117942 0.040944 -0.007530 -0.109929 -0.039308 -0.007818 -0.010042 0.102555 -0.049386 -0.027975 -0.010332 -0.082403 0.030662 -0.166356 -0.079556 0.088287 -0.148572 0.153038 0.014523 0.041472 -0.086925 0.065336 -0.098299 -0.102522 -0.029482 0.031490 0.077910 0.030407 0.052431 -0.005658 0.034358 0.064507 -0.100863 0.168870 -0.041508 0.079147 0.012197 0.055906 -0.251861 0.028030 0.056948 -0.006906 -0.094178 -0.087061 -0.120836 -0.123015 0.071280 -0.124786 0.027408 0.039484 0.084890 -0.049852 0.052153 -0.051584 -0.031066 0.087234 -0.135122 -0.013221 -0.057165 0.019721 0.070594 -0.059811 0.013298 0.026269 0.080466 0.070896 0.107071 -0.194636 0.083425 -0.172877 -0.159356 0.103572 -0.177258 -0.002049 0.260828 0.072115 -0.106721 0.002426 -0.035559 -0.000789 0.016345 -0.173966 -0.157127 -0.033516 0.174697
5 -0.202657 -0.105181 0.020971 -0.051314 -0.121883 0.172111 -0.353325 0.144332 0.080291 -0.202922 0.079049 0.075133 -0.146683 0.064038 0.029443 -0.011288 -0.256791 -0.112913 0.228932 0.056593 0.016268 0.075966 0.155545 -0.053361 0.054484 0.020681 -0.052458 0.116330 0.005778 0.007951 -0.153827 0.171724 -0.118117 0.074581 0.093280 0.053209 0.197365 0.060093 -0.026932 -0.030589 0.019274 -0.159567 0.050845 -0.223169 0.151320 -0.044680 -0.099263 -0.111970 -0.064410 0.029326 0.127028 -0.132924 -0.025965 -0.027181 -0.029562 0.072874 -0.204290 -0.067006 0.025271 -0.182582 0.128169 -0.005315 0.019866 -0.084285 0.091699 -0.117838 -0.035898 0.029734 0.019003 -0.023956 -0.038458 0.072876 0.035507 -0.020793 0.030677 -0.123399 0.063925 0.006050 0.092965 0.076997 0.070093 -0.284015 0.107022 0.106969 0.067107 -0.096662 -0.045286 -0.102819 -0.115333 0.009602 -0.113725 0.069722 0.026097 0.130993 -0.027239 0.029856 -0.044354 -0.009329 0.031887 -0.194440 -0.029363 -0.119633 0.080251 -0.024032 -0.000906 0.024704 -0.043372 0.045208 0.062211 0.083465 -0.256434 0.122946 -0.226061 -0.156891 0.122345 -0.206447 0.036451 0.288290 0.089425 -0.047418 0.016037 -0.101389 0.067693 0.115408 -0.138434 -0.228557 -0.048321 0.135273
11 -0.216169 -0.130537 0.011163 -0.021837 -0.142639 0.172713 -0.432333 0.166682 0.059449 -0.272981 0.104124 0.046550 -0.202933 0.091247 0.029444 -0.061783 -0.326118 -0.132892 0.268603 0.059890 -0.001283 0.078387 0.142451 -0.034189 0.087244 0.009961 -0.068940 0.107801 0.013826 -0.019884 -0.190390 0.206808 -0.082023 0.048510 0.118270 0.066470 0.193482 0.118048 -0.022768 -0.034599 0.054868 -0.181487 0.020876 -0.286597 0.211537 -0.062929 -0.099804 -0.149605 -0.090855 0.041987 0.139254 -0.175884 -0.027164 -0.035780 -0.011636 0.092688 -0.228363 -0.065248 0.004746 -0.210968 0.117515 -0.013945 0.013316 -0.095298 0.104473 -0.143009 -0.006802 0.053552 0.007611 -0.068168 -0.065644 0.083403 0.058950 -0.051175 0.018079 -0.144816 0.022734 0.026963 0.095152 0.098707 0.072969 -0.313746 0.147397 0.130132 0.104144 -0.097673 -0.029234 -0.103470 -0.113263 -0.015156 -0.112984 0.086750 0.022904 0.157982 -0.009809 0.027197 -0.040197 0.011304 0.009976 -0.233466 -0.045936 -0.152601 0.110088 -0.067582 0.031655 0.035130 -0.077766 0.028645 0.061371 0.074960 -0.290766 0.142124 -0.260188 -0.156640 0.130866 -0.220138 0.049556 0.301405 0.091402 -0.018420 0.017193 -0.135592 0.097010 0.161066 -0.116951 -0.263224 -0.060451 0.112385
25 -0.188536 -0.069269 0.070082 -0.205843 -0.082323 0.193150 -0.155210 0.102146 0.194133 -0.012624 0.014719 0.212166 0.025947 -0.009347 0.015695 0.140294 -0.066026 -0.047620 0.150446 0.066190 0.090665 0.050197 0.215685 -0.141509 -0.049850 0.085676 0.006219 0.146067 -0.030951 0.128151 -0.085092 0.080546 -0.246898 0.156184 0.051581 0.040723 0.277297 -0.122197 -0.024980 0.011624 -0.095741 -0.131439 0.171639 -0.052962 -0.043814 0.031715 -0.134019 0.005643 0.020110 -0.024389 0.101120 0.002540 -0.022138 0.001199 -0.112040 -0.005601 -0.158911 -0.101386 0.125481 -0.127508 0.186351 0.032947 0.069637 -0.092411 0.044212 -0.086664 -0.143892 -0.059610 0.050266 0.161347 0.081729 0.037743 -0.038725 0.064892 0.097979 -0.088424 0.244256 -0.072997 0.093854 -0.022634 0.065230 -0.271751 -0.022843 0.044541 -0.042885 -0.109248 -0.131497 -0.141138 -0.134072 0.122656 -0.159909 0.011955 0.041353 0.058884 -0.072689 0.055178 -0.065884 -0.063937 0.147718 -0.097615 -0.009235 -0.024512 -0.024609 0.133123 -0.114408 0.002312 0.056719 0.125345 0.072589 0.135024 -0.179418 0.072125 -0.143962 -0.176080 0.109313 -0.190359 0.004295 0.292713 0.091813 -0.157345 -0.013761 -0.002123 -0.029074 -0.043222 -0.224240 -0.139775 -0.008397 0.232091
26 -0.188019 -0.059986 0.069194 -0.204571 -0.077210 0.178746 -0.136077 0.098927 0.192639 -0.003056 0.014339 0.209024 0.031597 -0.009917 0.019727 0.138389 -0.054551 -0.045875 0.139729 0.064849 0.096289 0.049321 0.209428 -0.146475 -0.049515 0.087986 0.011471 0.140951 -0.033172 0.120212 -0.083233 0.080213 -0.248411 0.156845 0.051639 0.046021 0.269706 -0.123988 -0.016712 0.006412 -0.095602 -0.132552 0.168249 -0.050458 -0.046114 0.033677 -0.129526 0.011246 0.022000 -0.023871 0.090145 0.005346 -0.024606 -0.001790 -0.123009 -0.007465 -0.155622 -0.104230 0.125911 -0.124065 0.183399 0.031526 0.068091 -0.094682 0.044416 -0.085852 -0.144193 -0.056524 0.047827 0.161785 0.085548 0.038795 -0.039710 0.066937 0.103162 -0.085207 0.240682 -0.067549 0.086752 -0.023076 0.058682 -0.257783 -0.017163 0.037198 -0.044643 -0.106821 -0.130153 -0.138294 -0.136302 0.120169 -0.156741 0.011090 0.047206 0.054207 -0.073304 0.052585 -0.062738 -0.055133 0.149980 -0.101746 0.000163 -0.013448 -0.020342 0.139346 -0.108458 0.000737 0.062002 0.125099 0.072514 0.133838 -0.181124 0.066294 -0.135752 -0.170627 0.104027 -0.184048 -0.001861 0.287400 0.080093 -0.156884 -0.011093 0.005055 -0.039749 -0.052657 -0.221620 -0.130599 -0.006421 0.226571
29 -0.196485 -0.072137 0.054722 -0.166382 -0.081415 0.182483 -0.185090 0.116063 0.168267 -0.045680 0.027090 0.176211 0.003833 0.009560 0.022566 0.117170 -0.110306 -0.059390 0.166935 0.059396 0.082285 0.049010 0.206087 -0.128898 -0.030160 0.069507 -0.008499 0.140765 -0.024455 0.106918 -0.105051 0.106971 -0.225062 0.142810 0.062762 0.045463 0.260679 -0.090441 -0.019523 0.002270 -0.078962 -0.138434 0.139089 -0.085513 0.002378 0.011932 -0.123234 -0.020766 0.001463 -0.012836 0.099485 -0.027978 -0.024386 -0.006826 -0.101215 0.016070 -0.161092 -0.093025 0.107881 -0.140751 0.173020 0.019699 0.059276 -0.095226 0.054559 -0.089380 -0.127509 -0.040992 0.039795 0.116883 0.055417 0.042996 -0.021180 0.059272 0.088388 -0.096037 0.208433 -0.060567 0.089389 -0.005122 0.060775 -0.258814 0.002912 0.051449 -0.023647 -0.099823 -0.113396 -0.132550 -0.128650 0.097757 -0.136808 0.020649 0.042672 0.076026 -0.063500 0.054461 -0.062921 -0.046088 0.114206 -0.124034 -0.012280 -0.040790 0.002468 0.101238 -0.088586 0.005756 0.044558 0.099552 0.073306 0.121675 -0.190277 0.078215 -0.167203 -0.168989 0.105513 -0.183962 -0.002410 0.280447 0.080745 -0.134350 -0.006940 -0.021565 -0.023136 -0.014890 -0.202048 -0.146099 -0.021581 0.208740
20 -0.203064 -0.083027 0.032493 -0.121505 -0.098062 0.175643 -0.254417 0.123207 0.135333 -0.118686 0.052712 0.130863 -0.061553 0.028293 0.031166 0.058428 -0.178335 -0.081015 0.195220 0.056531 0.054230 0.054203 0.181075 -0.094974 0.012966 0.044526 -0.030066 0.132702 -0.015112 0.068862 -0.136822 0.131424 -0.170623 0.118265 0.082484 0.056575 0.230752 -0.019493 -0.022515 -0.018904 -0.029430 -0.151151 0.097534 -0.149338 0.076203 -0.017893 -0.115032 -0.054568 -0.019631 -0.001096 0.110348 -0.077719 -0.027383 -0.008738 -0.079922 0.042582 -0.186289 -0.079990 0.076596 -0.165560 0.154139 0.008725 0.040389 -0.093964 0.074410 -0.103640 -0.089038 -0.011059 0.028435 0.057328 0.019146 0.059981 0.006792 0.023269 0.061366 -0.109323 0.141336 -0.033923 0.081952 0.031721 0.062841 -0.263909 0.050788 0.073860 0.005081 -0.095761 -0.079230 -0.122524 -0.128440 0.058217 -0.119665 0.042380 0.044261 0.100768 -0.045249 0.048452 -0.053339 -0.028200 0.074725 -0.153829 -0.024936 -0.075442 0.036703 0.053729 -0.042339 0.019729 0.004108 0.073261 0.068609 0.111656 -0.214148 0.097649 -0.194594 -0.165832 0.109589 -0.190708 0.005532 0.274119 0.079142 -0.090515 0.002563 -0.063435 0.017540 0.036964 -0.168419 -0.177062 -0.037018 0.164390
31 -0.195706 -0.073526 0.050378 -0.152248 -0.085186 0.181876 -0.208908 0.115493 0.161445 -0.069852 0.036741 0.166667 -0.016026 0.013418 0.030282 0.097066 -0.132434 -0.065397 0.179064 0.061692 0.071558 0.058106 0.196785 -0.120467 -0.012911 0.057300 -0.012570 0.140671 -0.026058 0.089436 -0.112030 0.116698 -0.214028 0.138788 0.069996 0.052650 0.251633 -0.069685 -0.021260 -0.001937 -0.065420 -0.139302 0.127828 -0.104686 0.024286 -0.000668 -0.120122 -0.029432 -0.004619 -0.004820 0.100128 -0.043427 -0.027253 -0.005333 -0.096580 0.025063 -0.166660 -0.087173 0.097831 -0.150129 0.171861 0.013918 0.049055 -0.088944 0.065809 -0.092841 -0.109921 -0.032028 0.041280 0.100164 0.040495 0.045576 -0.008945 0.046263 0.078545 -0.102583 0.187053 -0.046125 0.082048 0.012780 0.057583 -0.259237 0.022454 0.061764 -0.010296 -0.100901 -0.095074 -0.126494 -0.132269 0.081404 -0.130973 0.027580 0.046335 0.086644 -0.054278 0.054035 -0.057597 -0.036676 0.102923 -0.127364 -0.009301 -0.046421 0.012491 0.087747 -0.075533 0.005028 0.029176 0.089100 0.072117 0.120436 -0.197156 0.076140 -0.175960 -0.160844 0.105102 -0.186717 -0.002758 0.277679 0.079139 -0.121016 0.000305 -0.033797 -0.014239 0.004198 -0.192792 -0.155137 -0.028406 0.192586
21 -0.194716 -0.063876 0.053830 -0.167030 -0.081921 0.182234 -0.174066 0.110292 0.175992 -0.040426 0.030148 0.183209 0.010176 0.006371 0.024297 0.119307 -0.107194 -0.056966 0.168069 0.059243 0.082120 0.048532 0.205228 -0.128510 -0.030767 0.067452 -0.005772 0.148512 -0.028061 0.109251 -0.101785 0.107408 -0.227573 0.146214 0.063398 0.053863 0.257078 -0.092435 -0.018400 -0.000331 -0.078384 -0.136253 0.138995 -0.082581 -0.004115 0.008021 -0.119845 -0.018220 0.006415 -0.016272 0.094832 -0.026363 -0.022559 -0.000692 -0.107812 0.012536 -0.160345 -0.092377 0.111809 -0.139960 0.175329 0.017319 0.057589 -0.097592 0.061759 -0.092402 -0.128143 -0.047116 0.044766 0.117707 0.058962 0.046206 -0.021165 0.061051 0.088090 -0.097387 0.211052 -0.058030 0.085325 -0.002900 0.051420 -0.251605 0.002286 0.047524 -0.030904 -0.099652 -0.109495 -0.130845 -0.134522 0.098045 -0.129940 0.019727 0.048964 0.075789 -0.059308 0.060528 -0.062983 -0.041382 0.118826 -0.119072 -0.008901 -0.035525 0.002876 0.104364 -0.082813 -0.000941 0.043534 0.094892 0.070875 0.123680 -0.182646 0.067590 -0.163484 -0.160647 0.103350 -0.176888 -0.014205 0.272231 0.076966 -0.128611 -0.002750 -0.012316 -0.027355 -0.012611 -0.200339 -0.139153 -0.022314 0.208727
18 -0.203388 -0.094915 0.025913 -0.090241 -0.106545 0.172587 -0.295352 0.128616 0.110781 -0.150265 0.068035 0.107702 -0.098361 0.044796 0.027717 0.031705 -0.207508 -0.093748 0.208202 0.060049 0.041812 0.062034 0.171500 -0.077115 0.031433 0.027560 -0.040630 0.127439 -0.000664 0.042803 -0.148045 0.148126 -0.148320 0.100415 0.087096 0.054452 0.211408 0.012767 -0.019518 -0.025027 -0.007471 -0.150022 0.077380 -0.179747 0.107855 -0.029207 -0.107271 -0.079259 -0.034788 0.007105 0.112208 -0.098408 -0.023064 -0.012226 -0.060986 0.053478 -0.188989 -0.070893 0.053352 -0.166621 0.137935 -0.001616 0.028638 -0.085535 0.076864 -0.109147 -0.064298 0.000445 0.023506 0.027164 -0.004193 0.061961 0.015297 0.005500 0.044205 -0.117583 0.107745 -0.013485 0.087809 0.051112 0.063811 -0.267886 0.069681 0.084633 0.028204 -0.094806 -0.065947 -0.108250 -0.120395 0.039526 -0.111322 0.051565 0.036588 0.116039 -0.039724 0.045689 -0.053083 -0.016315 0.053903 -0.171098 -0.030491 -0.088116 0.053939 0.024221 -0.027839 0.022825 -0.015311 0.061312 0.066623 0.097868 -0.226374 0.107674 -0.203674 -0.157592 0.112986 -0.193572 0.016226 0.272718 0.082763 -0.072531 0.008092 -0.074536 0.039514 0.071999 -0.150038 -0.198880 -0.046097 0.147922
27 -0.198776 -0.066137 0.057085 -0.177751 -0.076347 0.184712 -0.179298 0.111076 0.181466 -0.035286 0.021983 0.187305 0.012750 0.003601 0.024142 0.126604 -0.097610 -0.055106 0.160100 0.064279 0.085768 0.052247 0.215304 -0.133713 -0.031336 0.069869 -0.006854 0.148919 -0.025432 0.110672 -0.095405 0.096672 -0.236860 0.151512 0.057295 0.048822 0.260699 -0.100092 -0.023046 0.000902 -0.090681 -0.133423 0.142253 -0.077525 -0.007499 0.008130 -0.126532 -0.011097 0.007372 -0.013710 0.099850 -0.020676 -0.021672 -0.001925 -0.111005 0.011972 -0.162644 -0.088900 0.110466 -0.135251 0.182307 0.020392 0.061570 -0.093034 0.058800 -0.089283 -0.127433 -0.049548 0.045317 0.129213 0.053023 0.039794 -0.018650 0.061414 0.089094 -0.102352 0.221960 -0.057445 0.088966 -0.004606 0.054761 -0.258187 -0.004992 0.047575 -0.025355 -0.104168 -0.116848 -0.132640 -0.135551 0.101983 -0.134659 0.016416 0.044463 0.071996 -0.063095 0.050977 -0.059959 -0.044163 0.124463 -0.112799 -0.008058 -0.028247 -0.001551 0.108449 -0.088973 0.000136 0.049927 0.101369 0.071064 0.127412 -0.186321 0.070559 -0.162485 -0.161126 0.105660 -0.180201 -0.004793 0.273166 0.077808 -0.140920 -0.006239 -0.009985 -0.028179 -0.024131 -0.209546 -0.141128 -0.021262 0.210151
15 -0.198212 -0.073626 0.052386 -0.146053 -0.084336 0.176345 -0.205538 0.115529 0.159921 -0.068888 0.040407 0.159787 -0.019387 0.011949 0.023474 0.100041 -0.133235 -0.071897 0.170114 0.064183 0.072334 0.058816 0.193843 -0.117872 -0.019440 0.059150 -0.009336 0.140069 -0.019250 0.087738 -0.115021 0.111722 -0.212454 0.131606 0.067335 0.050984 0.247698 -0.067552 -0.025182 -0.006142 -0.064410 -0.137492 0.124154 -0.102360 0.022242 0.003313 -0.120281 -0.034509 -0.011724 -0.007766 0.102750 -0.038412 -0.021913 -0.006086 -0.096303 0.027180 -0.166871 -0.085079 0.088928 -0.143896 0.164600 0.011435 0.055615 -0.087985 0.065005 -0.094225 -0.110178 -0.031405 0.036430 0.096087 0.040132 0.045326 -0.009066 0.045997 0.072308 -0.106028 0.181567 -0.048742 0.081130 0.012455 0.058110 -0.254961 0.020085 0.055825 -0.011011 -0.101476 -0.095882 -0.126755 -0.130058 0.082639 -0.129088 0.027283 0.041945 0.084224 -0.057505 0.048854 -0.059421 -0.032379 0.102515 -0.132893 -0.008308 -0.043440 0.012637 0.078701 -0.071879 0.003429 0.030959 0.086880 0.067864 0.113483 -0.199031 0.080667 -0.168410 -0.159846 0.104979 -0.179194 -0.003181 0.268239 0.074549 -0.116553 0.000200 -0.025366 -0.012398 0.004040 -0.192304 -0.154775 -0.027610 0.193117
23 -0.200857 -0.072261 0.051394 -0.148471 -0.085919 0.183206 -0.218380 0.123732 0.158054 -0.075536 0.042923 0.162084 -0.021827 0.016155 0.024296 0.093120 -0.137676 -0.074339 0.180548 0.063382 0.067449 0.055772 0.199867 -0.117066 -0.015730 0.053187 -0.014551 0.142821 -0.021222 0.087571 -0.113144 0.121216 -0.207019 0.135383 0.069143 0.050022 0.245085 -0.061291 -0.022886 -0.005579 -0.065807 -0.142770 0.117888 -0.110151 0.027514 0.001662 -0.119730 -0.038403 -0.014304 -0.008770 0.102384 -0.044928 -0.026246 -0.008304 -0.092130 0.027539 -0.172054 -0.089414 0.093536 -0.149122 0.164424 0.012636 0.052241 -0.091154 0.061698 -0.099541 -0.108236 -0.034150 0.040207 0.094747 0.039884 0.050359 -0.010265 0.042475 0.073272 -0.105793 0.177520 -0.043795 0.083993 0.011954 0.060672 -0.259245 0.024537 0.061592 -0.007160 -0.101305 -0.099045 -0.128634 -0.123581 0.081314 -0.128041 0.030488 0.042288 0.085284 -0.055164 0.051742 -0.060965 -0.031213 0.103593 -0.136951 -0.012960 -0.047197 0.018872 0.075993 -0.064156 0.002768 0.024358 0.085510 0.068296 0.111537 -0.203198 0.080254 -0.172099 -0.160965 0.106459 -0.184292 -0.001469 0.274457 0.076961 -0.115256 -0.000926 -0.030735 -0.003324 0.011126 -0.192184 -0.163923 -0.032778 0.192189
17 -0.209301 -0.113220 0.018102 -0.052212 -0.126023 0.170902 -0.364386 0.147181 0.080142 -0.212635 0.080000 0.072384 -0.151339 0.067321 0.025547 -0.022010 -0.266525 -0.116129 0.235663 0.061740 0.021213 0.076026 0.150735 -0.052149 0.055818 0.016104 -0.049707 0.110612 0.004536 0.003220 -0.162415 0.176666 -0.108195 0.070422 0.099123 0.055104 0.198263 0.071484 -0.027387 -0.025767 0.029191 -0.164393 0.043470 -0.228445 0.158266 -0.043118 -0.099788 -0.115679 -0.064135 0.025776 0.123687 -0.141113 -0.023575 -0.027862 -0.025650 0.076042 -0.207088 -0.064308 0.028207 -0.189607 0.123144 -0.008843 0.019261 -0.087913 0.089888 -0.126536 -0.032259 0.030600 0.011005 -0.027936 -0.038847 0.074546 0.040903 -0.022881 0.030245 -0.123846 0.057530 0.009987 0.089786 0.075526 0.066163 -0.285853 0.112122 0.102171 0.071557 -0.095611 -0.045751 -0.104639 -0.112446 0.011729 -0.109053 0.069203 0.028470 0.134554 -0.021331 0.028816 -0.039976 -0.000675 0.033476 -0.202226 -0.036650 -0.120732 0.082838 -0.028912 0.007302 0.023848 -0.050710 0.043753 0.060537 0.087037 -0.255221 0.123461 -0.231866 -0.159655 0.124151 -0.208524 0.036286 0.284276 0.089994 -0.042862 0.013143 -0.106400 0.068962 0.114897 -0.132426 -0.229332 -0.046192 0.132844
16 -0.192905 -0.071820 0.054202 -0.157247 -0.081802 0.179270 -0.192764 0.114392 0.160415 -0.055685 0.035235 0.162695 -0.012570 0.013639 0.023387 0.101219 -0.122647 -0.066655 0.168223 0.058622 0.072055 0.050105 0.193711 -0.122342 -0.022450 0.058366 -0.010985 0.138198 -0.021398 0.093398 -0.108579 0.105402 -0.214659 0.137164 0.064735 0.046078 0.248931 -0.075794 -0.021809 -0.000081 -0.071618 -0.138584 0.125599 -0.092238 0.017964 0.002187 -0.119727 -0.028244 -0.006087 -0.012475 0.097428 -0.033604 -0.026978 -0.006077 -0.097693 0.020450 -0.160037 -0.084040 0.096324 -0.139601 0.167139 0.013516 0.052376 -0.087792 0.059819 -0.092941 -0.115381 -0.036268 0.040635 0.102795 0.047748 0.048304 -0.011432 0.051150 0.078104 -0.101970 0.189330 -0.048242 0.087241 0.003025 0.053823 -0.255893 0.016312 0.057090 -0.015247 -0.097600 -0.101948 -0.125069 -0.128279 0.088226 -0.128895 0.021724 0.043557 0.077898 -0.053801 0.052747 -0.055526 -0.035021 0.106297 -0.128887 -0.010629 -0.039242 0.006268 0.088135 -0.076431 0.001381 0.036451 0.091473 0.067130 0.117225 -0.192443 0.076062 -0.164581 -0.160660 0.102645 -0.182316 -0.004146 0.267461 0.078588 -0.120663 -0.002942 -0.023162 -0.017038 -0.002377 -0.190471 -0.146083 -0.027921 0.196089
19 -0.189781 -0.057541 0.062358 -0.178616 -0.065600 0.176847 -0.149629 0.111054 0.180377 -0.022856 0.025022 0.185007 0.026931 -0.005085 0.027425 0.138651 -0.083153 -0.052094 0.154545 0.061549 0.089735 0.046791 0.211327 -0.136832 -0.042218 0.065285 -0.000095 0.147468 -0.028221 0.113414 -0.091286 0.098235 -0.242743 0.152800 0.059982 0.044582 0.260429 -0.115207 -0.021147 0.001556 -0.098748 -0.133479 0.142909 -0.066080 -0.020809 0.016745 -0.125389 -0.008749 0.013839 -0.016920 0.096755 -0.009693 -0.027576 -0.003971 -0.114835 0.008163 -0.155934 -0.096590 0.110634 -0.132699 0.180851 0.017602 0.067869 -0.088879 0.056837 -0.089455 -0.138526 -0.055714 0.049784 0.136040 0.066522 0.042329 -0.019381 0.069235 0.093235 -0.095804 0.226766 -0.060245 0.081981 -0.013754 0.047417 -0.240436 -0.008520 0.038481 -0.033229 -0.101735 -0.115581 -0.128787 -0.129904 0.105632 -0.133851 0.012958 0.047022 0.067885 -0.063139 0.058186 -0.065086 -0.047795 0.119569 -0.108244 -0.004189 -0.020959 -0.003105 0.119092 -0.088576 0.001215 0.054804 0.101283 0.071925 0.123746 -0.176864 0.060069 -0.149072 -0.157339 0.096937 -0.170996 -0.012420 0.260607 0.071212 -0.139428 -0.007952 -0.005076 -0.040740 -0.034870 -0.207460 -0.128052 -0.022075 0.207912
13 -0.192636 -0.088749 0.029463 -0.094505 -0.101986 0.170096 -0.278836 0.124205 0.118314 -0.140822 0.061138 0.110406 -0.086919 0.041220 0.029747 0.036074 -0.190273 -0.090197 0.200890 0.054535 0.043761 0.058404 0.169650 -0.078451 0.026582 0.036017 -0.030970 0.124532 -0.001219 0.041161 -0.139249 0.138520 -0.146397 0.099316 0.085519 0.050562 0.212235 0.005045 -0.020002 -0.023957 -0.015901 -0.147081 0.078130 -0.169198 0.096421 -0.023477 -0.106772 -0.075473 -0.035650 0.010280 0.113080 -0.092585 -0.024058 -0.012749 -0.058763 0.051334 -0.180789 -0.071231 0.061043 -0.162977 0.137736 -0.000408 0.030484 -0.085745 0.073588 -0.103786 -0.069974 -0.003154 0.020667 0.030769 0.004985 0.062030 0.013553 0.009000 0.046788 -0.114084 0.115330 -0.016545 0.087889 0.045642 0.067199 -0.262372 0.067038 0.083200 0.027534 -0.092298 -0.065648 -0.107249 -0.121228 0.040786 -0.119603 0.045271 0.034361 0.111245 -0.037969 0.043481 -0.050847 -0.020768 0.057971 -0.158766 -0.028671 -0.083895 0.045454 0.023697 -0.034152 0.018586 -0.011339 0.061134 0.064880 0.094656 -0.220444 0.103523 -0.196478 -0.159895 0.107370 -0.184000 0.018485 0.269510 0.075496 -0.072042 0.008974 -0.073162 0.028947 0.058404 -0.153040 -0.189953 -0.040129 0.149002
10 -0.205385 -0.077796 0.045477 -0.144238 -0.091903 0.188385 -0.221128 0.120067 0.163775 -0.081461 0.042017 0.161348 -0.026865 0.021890 0.030859 0.093544 -0.142956 -0.071324 0.183862 0.060008 0.069316 0.054294 0.200230 -0.118175 -0.009397 0.057283 -0.015359 0.143957 -0.021230 0.090780 -0.126004 0.126207 -0.206587 0.137949 0.076030 0.058199 0.250793 -0.060041 -0.019751 -0.009700 -0.060499 -0.143242 0.120071 -0.122389 0.042706 -0.001837 -0.117697 -0.043259 -0.009462 -0.010976 0.107274 -0.055160 -0.025390 -0.009881 -0.093720 0.028732 -0.174253 -0.083092 0.095819 -0.154892 0.171418 0.011432 0.049325 -0.092389 0.070382 -0.103153 -0.110906 -0.035270 0.034001 0.087089 0.033845 0.052475 -0.008559 0.042109 0.071630 -0.106394 0.178203 -0.041849 0.085298 0.019077 0.062484 -0.261857 0.024694 0.062670 -0.013408 -0.097799 -0.093808 -0.127777 -0.132349 0.077755 -0.129456 0.025560 0.048987 0.093557 -0.054778 0.052143 -0.058144 -0.029336 0.097262 -0.139376 -0.012501 -0.052867 0.017096 0.081796 -0.067857 0.008409 0.026016 0.087074 0.070370 0.117622 -0.205934 0.081908 -0.185677 -0.166371 0.107240 -0.184153 -0.007714 0.276546 0.075863 -0.115172 -0.004619 -0.040957 -0.007122 0.009038 -0.192172 -0.161325 -0.033336 0.187255
22 -0.197936 -0.088439 0.036804 -0.114309 -0.093899 0.175554 -0.259915 0.128959 0.134920 -0.118197 0.055363 0.135037 -0.068824 0.030663 0.029084 0.060227 -0.177453 -0.084593 0.196800 0.056708 0.051273 0.059118 0.185591 -0.094107 0.014209 0.040643 -0.025154 0.130881 -0.008860 0.059253 -0.131466 0.136467 -0.172911 0.114405 0.077323 0.055410 0.226834 -0.016596 -0.022375 -0.015559 -0.032541 -0.144975 0.096951 -0.148895 0.072624 -0.014122 -0.112950 -0.060040 -0.025709 0.001160 0.111016 -0.074997 -0.028075 -0.012298 -0.078824 0.044361 -0.181096 -0.080405 0.076302 -0.164235 0.154507 0.002002 0.035363 -0.086718 0.077862 -0.106558 -0.085532 -0.009835 0.028569 0.055317 0.012668 0.060254 0.008148 0.020119 0.053707 -0.110448 0.141663 -0.028692 0.084803 0.034685 0.063465 -0.265426 0.051011 0.075180 0.008859 -0.097127 -0.079491 -0.113152 -0.122033 0.054572 -0.120494 0.043421 0.042014 0.106405 -0.045686 0.047792 -0.053635 -0.025188 0.071535 -0.149807 -0.022892 -0.068182 0.040915 0.045103 -0.043042 0.017337 0.003283 0.073821 0.069897 0.106483 -0.215628 0.098873 -0.191732 -0.162673 0.106102 -0.187809 0.002924 0.272658 0.076196 -0.088716 0.000394 -0.057497 0.015257 0.044122 -0.170715 -0.183486 -0.037780 0.169986
12 -0.201571 -0.095841 0.036119 -0.105366 -0.099846 0.177488 -0.274626 0.128232 0.123736 -0.136683 0.061377 0.126491 -0.084433 0.035150 0.024410 0.046226 -0.192568 -0.091547 0.202905 0.057498 0.047424 0.063257 0.175549 -0.091230 0.017965 0.037416 -0.029554 0.134652 -0.004107 0.050530 -0.134503 0.141797 -0.161606 0.108443 0.084865 0.055086 0.224707 -0.009795 -0.022865 -0.018421 -0.020970 -0.144981 0.090213 -0.163398 0.088120 -0.019279 -0.113574 -0.065200 -0.027210 0.003858 0.113111 -0.087202 -0.023713 -0.013652 -0.067693 0.048396 -0.184551 -0.071405 0.063863 -0.167489 0.149862 0.001613 0.031699 -0.088678 0.078249 -0.105339 -0.078392 -0.004185 0.023482 0.038992 0.004692 0.058746 0.006964 0.013415 0.052132 -0.117296 0.128927 -0.022483 0.090721 0.042078 0.065293 -0.270259 0.058076 0.079835 0.023051 -0.091150 -0.068813 -0.112160 -0.126324 0.052565 -0.122905 0.042745 0.033217 0.112084 -0.045365 0.044560 -0.055731 -0.022011 0.066957 -0.161119 -0.026371 -0.084134 0.045147 0.033800 -0.039667 0.015918 -0.003834 0.064220 0.064413 0.100613 -0.218219 0.097736 -0.198419 -0.158090 0.110283 -0.189004 0.010231 0.272753 0.081501 -0.084015 0.003837 -0.066342 0.023682 0.051639 -0.160722 -0.190868 -0.038978 0.159811
